Language model created by QuickLM on Wed Jan 30 06:47:25 EST 2019
Copyright (c) 1996-2010 Carnegie Mellon University and Alexander I. Rudnicky

The model is in standard ARPA format, designed by Doug Paul while he was at MITRE.

The code that was used to produce this language model is available in Open Source.
Please visit http://www.speech.cs.cmu.edu/tools/ for more information

The (fixed) discount mass is 0.5. The backoffs are computed using the ratio method.
This model based on a corpus of 6 sentences and 8 words

\data\
ngram 1=8
ngram 2=12
ngram 3=6

\1-grams:
-0.7782 </s> -0.3010
-0.7782 <s> -0.2218
-1.5563 FIVE -0.2218
-1.5563 FOUR -0.2218
-1.5563 ONE -0.2218
-1.5563 SIX -0.2218
-1.5563 THREE -0.2218
-1.5563 TWO -0.2218

\2-grams:
-1.0792 <s> FIVE 0.0000
-1.0792 <s> FOUR 0.0000
-1.0792 <s> ONE 0.0000
-1.0792 <s> SIX 0.0000
-1.0792 <s> THREE 0.0000
-1.0792 <s> TWO 0.0000
-0.3010 FIVE </s> -0.3010
-0.3010 FOUR </s> -0.3010
-0.3010 ONE </s> -0.3010
-0.3010 SIX </s> -0.3010
-0.3010 THREE </s> -0.3010
-0.3010 TWO </s> -0.3010

\3-grams:
-0.3010 <s> FIVE </s>
-0.3010 <s> FOUR </s>
-0.3010 <s> ONE </s>
-0.3010 <s> SIX </s>
-0.3010 <s> THREE </s>
-0.3010 <s> TWO </s>

\end\
